%YAML:1.0
---
opencv_ml_rtrees:
   format: 3
   is_classifier: 1
   var_all: 401
   var_count: 400
   ord_var_count: 400
   cat_var_count: 1
   training_params:
      use_surrogates: 0
      max_categories: 10
      regression_accuracy: 0.
      max_depth: 5
      min_sample_count: 10
      cross_validation_folds: 0
      nactive_vars: 0
   global_var_idx: 1
   var_idx: [ 0, 1, 2, 3, 4, 5, 6, 7, 8, 9, 10, 11, 12, 13, 14, 15, 16,
       17, 18, 19, 20, 21, 22, 23, 24, 25, 26, 27, 28, 29, 30, 31, 32,
       33, 34, 35, 36, 37, 38, 39, 40, 41, 42, 43, 44, 45, 46, 47, 48,
       49, 50, 51, 52, 53, 54, 55, 56, 57, 58, 59, 60, 61, 62, 63, 64,
       65, 66, 67, 68, 69, 70, 71, 72, 73, 74, 75, 76, 77, 78, 79, 80,
       81, 82, 83, 84, 85, 86, 87, 88, 89, 90, 91, 92, 93, 94, 95, 96,
       97, 98, 99, 100, 101, 102, 103, 104, 105, 106, 107, 108, 109, 110,
       111, 112, 113, 114, 115, 116, 117, 118, 119, 120, 121, 122, 123,
       124, 125, 126, 127, 128, 129, 130, 131, 132, 133, 134, 135, 136,
       137, 138, 139, 140, 141, 142, 143, 144, 145, 146, 147, 148, 149,
       150, 151, 152, 153, 154, 155, 156, 157, 158, 159, 160, 161, 162,
       163, 164, 165, 166, 167, 168, 169, 170, 171, 172, 173, 174, 175,
       176, 177, 178, 179, 180, 181, 182, 183, 184, 185, 186, 187, 188,
       189, 190, 191, 192, 193, 194, 195, 196, 197, 198, 199, 200, 201,
       202, 203, 204, 205, 206, 207, 208, 209, 210, 211, 212, 213, 214,
       215, 216, 217, 218, 219, 220, 221, 222, 223, 224, 225, 226, 227,
       228, 229, 230, 231, 232, 233, 234, 235, 236, 237, 238, 239, 240,
       241, 242, 243, 244, 245, 246, 247, 248, 249, 250, 251, 252, 253,
       254, 255, 256, 257, 258, 259, 260, 261, 262, 263, 264, 265, 266,
       267, 268, 269, 270, 271, 272, 273, 274, 275, 276, 277, 278, 279,
       280, 281, 282, 283, 284, 285, 286, 287, 288, 289, 290, 291, 292,
       293, 294, 295, 296, 297, 298, 299, 300, 301, 302, 303, 304, 305,
       306, 307, 308, 309, 310, 311, 312, 313, 314, 315, 316, 317, 318,
       319, 320, 321, 322, 323, 324, 325, 326, 327, 328, 329, 330, 331,
       332, 333, 334, 335, 336, 337, 338, 339, 340, 341, 342, 343, 344,
       345, 346, 347, 348, 349, 350, 351, 352, 353, 354, 355, 356, 357,
       358, 359, 360, 361, 362, 363, 364, 365, 366, 367, 368, 369, 370,
       371, 372, 373, 374, 375, 376, 377, 378, 379, 380, 381, 382, 383,
       384, 385, 386, 387, 388, 389, 390, 391, 392, 393, 394, 395, 396,
       397, 398, 399 ]
   var_type: [ 0, 0, 0, 0, 0, 0, 0, 0, 0, 0, 0, 0, 0, 0, 0, 0, 0, 0, 0,
       0, 0, 0, 0, 0, 0, 0, 0, 0, 0, 0, 0, 0, 0, 0, 0, 0, 0, 0, 0, 0, 0,
       0, 0, 0, 0, 0, 0, 0, 0, 0, 0, 0, 0, 0, 0, 0, 0, 0, 0, 0, 0, 0, 0,
       0, 0, 0, 0, 0, 0, 0, 0, 0, 0, 0, 0, 0, 0, 0, 0, 0, 0, 0, 0, 0, 0,
       0, 0, 0, 0, 0, 0, 0, 0, 0, 0, 0, 0, 0, 0, 0, 0, 0, 0, 0, 0, 0, 0,
       0, 0, 0, 0, 0, 0, 0, 0, 0, 0, 0, 0, 0, 0, 0, 0, 0, 0, 0, 0, 0, 0,
       0, 0, 0, 0, 0, 0, 0, 0, 0, 0, 0, 0, 0, 0, 0, 0, 0, 0, 0, 0, 0, 0,
       0, 0, 0, 0, 0, 0, 0, 0, 0, 0, 0, 0, 0, 0, 0, 0, 0, 0, 0, 0, 0, 0,
       0, 0, 0, 0, 0, 0, 0, 0, 0, 0, 0, 0, 0, 0, 0, 0, 0, 0, 0, 0, 0, 0,
       0, 0, 0, 0, 0, 0, 0, 0, 0, 0, 0, 0, 0, 0, 0, 0, 0, 0, 0, 0, 0, 0,
       0, 0, 0, 0, 0, 0, 0, 0, 0, 0, 0, 0, 0, 0, 0, 0, 0, 0, 0, 0, 0, 0,
       0, 0, 0, 0, 0, 0, 0, 0, 0, 0, 0, 0, 0, 0, 0, 0, 0, 0, 0, 0, 0, 0,
       0, 0, 0, 0, 0, 0, 0, 0, 0, 0, 0, 0, 0, 0, 0, 0, 0, 0, 0, 0, 0, 0,
       0, 0, 0, 0, 0, 0, 0, 0, 0, 0, 0, 0, 0, 0, 0, 0, 0, 0, 0, 0, 0, 0,
       0, 0, 0, 0, 0, 0, 0, 0, 0, 0, 0, 0, 0, 0, 0, 0, 0, 0, 0, 0, 0, 0,
       0, 0, 0, 0, 0, 0, 0, 0, 0, 0, 0, 0, 0, 0, 0, 0, 0, 0, 0, 0, 0, 0,
       0, 0, 0, 0, 0, 0, 0, 0, 0, 0, 0, 0, 0, 0, 0, 0, 0, 0, 0, 0, 0, 0,
       0, 0, 0, 0, 0, 0, 0, 0, 0, 0, 0, 0, 0, 0, 0, 0, 0, 0, 0, 0, 0, 0,
       0, 0, 0, 0, 0, 0, 0, 1 ]
   cat_ofs: [ 0, 0, 0, 0, 0, 0, 0, 0, 0, 0, 0, 0, 0, 0, 0, 0, 0, 0, 0, 0,
       0, 0, 0, 0, 0, 0, 0, 0, 0, 0, 0, 0, 0, 0, 0, 0, 0, 0, 0, 0, 0, 0,
       0, 0, 0, 0, 0, 0, 0, 0, 0, 0, 0, 0, 0, 0, 0, 0, 0, 0, 0, 0, 0, 0,
       0, 0, 0, 0, 0, 0, 0, 0, 0, 0, 0, 0, 0, 0, 0, 0, 0, 0, 0, 0, 0, 0,
       0, 0, 0, 0, 0, 0, 0, 0, 0, 0, 0, 0, 0, 0, 0, 0, 0, 0, 0, 0, 0, 0,
       0, 0, 0, 0, 0, 0, 0, 0, 0, 0, 0, 0, 0, 0, 0, 0, 0, 0, 0, 0, 0, 0,
       0, 0, 0, 0, 0, 0, 0, 0, 0, 0, 0, 0, 0, 0, 0, 0, 0, 0, 0, 0, 0, 0,
       0, 0, 0, 0, 0, 0, 0, 0, 0, 0, 0, 0, 0, 0, 0, 0, 0, 0, 0, 0, 0, 0,
       0, 0, 0, 0, 0, 0, 0, 0, 0, 0, 0, 0, 0, 0, 0, 0, 0, 0, 0, 0, 0, 0,
       0, 0, 0, 0, 0, 0, 0, 0, 0, 0, 0, 0, 0, 0, 0, 0, 0, 0, 0, 0, 0, 0,
       0, 0, 0, 0, 0, 0, 0, 0, 0, 0, 0, 0, 0, 0, 0, 0, 0, 0, 0, 0, 0, 0,
       0, 0, 0, 0, 0, 0, 0, 0, 0, 0, 0, 0, 0, 0, 0, 0, 0, 0, 0, 0, 0, 0,
       0, 0, 0, 0, 0, 0, 0, 0, 0, 0, 0, 0, 0, 0, 0, 0, 0, 0, 0, 0, 0, 0,
       0, 0, 0, 0, 0, 0, 0, 0, 0, 0, 0, 0, 0, 0, 0, 0, 0, 0, 0, 0, 0, 0,
       0, 0, 0, 0, 0, 0, 0, 0, 0, 0, 0, 0, 0, 0, 0, 0, 0, 0, 0, 0, 0, 0,
       0, 0, 0, 0, 0, 0, 0, 0, 0, 0, 0, 0, 0, 0, 0, 0, 0, 0, 0, 0, 0, 0,
       0, 0, 0, 0, 0, 0, 0, 0, 0, 0, 0, 0, 0, 0, 0, 0, 0, 0, 0, 0, 0, 0,
       0, 0, 0, 0, 0, 0, 0, 0, 0, 0, 0, 0, 0, 0, 0, 0, 0, 0, 0, 0, 0, 0,
       0, 0, 0, 0, 0, 0, 0, 0, 0, 0, 0, 0, 0, 0, 0, 0, 0, 0, 0, 0, 0, 0,
       0, 0, 0, 0, 0, 0, 0, 0, 0, 0, 0, 0, 0, 0, 0, 0, 0, 0, 0, 0, 0, 0,
       0, 0, 0, 0, 0, 0, 0, 0, 0, 0, 0, 0, 0, 0, 0, 0, 0, 0, 0, 0, 0, 0,
       0, 0, 0, 0, 0, 0, 0, 0, 0, 0, 0, 0, 0, 0, 0, 0, 0, 0, 0, 0, 0, 0,
       0, 0, 0, 0, 0, 0, 0, 0, 0, 0, 0, 0, 0, 0, 0, 0, 0, 0, 0, 0, 0, 0,
       0, 0, 0, 0, 0, 0, 0, 0, 0, 0, 0, 0, 0, 0, 0, 0, 0, 0, 0, 0, 0, 0,
       0, 0, 0, 0, 0, 0, 0, 0, 0, 0, 0, 0, 0, 0, 0, 0, 0, 0, 0, 0, 0, 0,
       0, 0, 0, 0, 0, 0, 0, 0, 0, 0, 0, 0, 0, 0, 0, 0, 0, 0, 0, 0, 0, 0,
       0, 0, 0, 0, 0, 0, 0, 0, 0, 0, 0, 0, 0, 0, 0, 0, 0, 0, 0, 0, 0, 0,
       0, 0, 0, 0, 0, 0, 0, 0, 0, 0, 0, 0, 0, 0, 0, 0, 0, 0, 0, 0, 0, 0,
       0, 0, 0, 0, 0, 0, 0, 0, 0, 0, 0, 0, 0, 0, 0, 0, 0, 0, 0, 0, 0, 0,
       0, 0, 0, 0, 0, 0, 0, 0, 0, 0, 0, 0, 0, 0, 0, 0, 0, 0, 0, 0, 0, 0,
       0, 0, 0, 0, 0, 0, 0, 0, 0, 0, 0, 0, 0, 0, 0, 0, 0, 0, 0, 0, 0, 0,
       0, 0, 0, 0, 0, 0, 0, 0, 0, 0, 0, 0, 0, 0, 0, 0, 0, 0, 0, 0, 0, 0,
       0, 0, 0, 0, 0, 0, 0, 0, 0, 0, 0, 0, 0, 0, 0, 0, 0, 0, 0, 0, 0, 0,
       0, 0, 0, 0, 0, 0, 0, 0, 0, 0, 0, 0, 0, 0, 0, 0, 0, 0, 0, 0, 0, 0,
       0, 0, 0, 0, 0, 0, 0, 0, 0, 0, 0, 0, 0, 0, 0, 0, 0, 0, 0, 0, 0, 0,
       0, 0, 0, 0, 0, 0, 0, 0, 0, 0, 0, 0, 0, 0, 0, 0, 0, 0, 0, 0, 0, 0,
       0, 0, 0, 0, 0, 0, 0, 0, 0, 0 ]
   class_labels: [ 0, 1, 2, 3, 4, 5, 6, 7, 8, 9 ]
   missing_subst: [ 0., 0., 0., 0., 0., 0., 0., 0., 0., 0., 0., 0., 0.,
       0., 0., 0., 0., 0., 0., 0., 0., 0., 0., 0., 0., 0., 0., 0., 0.,
       0., 0., 0., 0., 0., 0., 0., 0., 0., 0., 0., 0., 0., 0., 0., 0.,
       0., 0., 0., 0., 0., 0., 0., 0., 0., 0., 0., 0., 0., 0., 0., 0.,
       0., 0., 0., 0., 0., 0., 0., 0., 0., 0., 0., 0., 0., 0., 0., 0.,
       0., 0., 0., 0., 0., 0., 0., 0., 0., 0., 0., 0., 0., 0., 0., 0.,
       0., 0., 0., 0., 0., 0., 0., 0., 0., 0., 0., 0., 0., 0., 0., 0.,
       0., 0., 0., 0., 0., 0., 0., 0., 0., 0., 0., 0., 0., 0., 0., 0.,
       0., 0., 0., 0., 0., 0., 0., 0., 0., 0., 0., 0., 0., 0., 0., 0.,
       0., 0., 0., 0., 0., 0., 0., 0., 0., 0., 0., 0., 0., 0., 0., 0.,
       0., 0., 0., 0., 0., 0., 0., 0., 0., 0., 0., 0., 0., 0., 0., 0.,
       0., 0., 0., 0., 0., 0., 0., 0., 0., 0., 0., 0., 0., 0., 0., 0.,
       0., 0., 0., 0., 0., 0., 0., 0., 0., 0., 0., 0., 0., 0., 0., 0.,
       0., 0., 0., 0., 0., 0., 0., 0., 0., 0., 0., 0., 0., 0., 0., 0.,
       0., 0., 0., 0., 0., 0., 0., 0., 0., 0., 0., 0., 0., 0., 0., 0.,
       0., 0., 0., 0., 0., 0., 0., 0., 0., 0., 0., 0., 0., 0., 0., 0.,
       0., 0., 0., 0., 0., 0., 0., 0., 0., 0., 0., 0., 0., 0., 0., 0.,
       0., 0., 0., 0., 0., 0., 0., 0., 0., 0., 0., 0., 0., 0., 0., 0.,
       0., 0., 0., 0., 0., 0., 0., 0., 0., 0., 0., 0., 0., 0., 0., 0.,
       0., 0., 0., 0., 0., 0., 0., 0., 0., 0., 0., 0., 0., 0., 0., 0.,
       0., 0., 0., 0., 0., 0., 0., 0., 0., 0., 0., 0., 0., 0., 0., 0.,
       0., 0., 0., 0., 0., 0., 0., 0., 0., 0., 0., 0., 0., 0., 0., 0.,
       0., 0., 0., 0., 0., 0., 0., 0., 0., 0., 0., 0., 0., 0., 0., 0.,
       0., 0., 0., 0., 0., 0., 0., 0., 0., 0., 0., 0., 0., 0., 0., 0.,
       0., 0., 0., 0., 0., 0., 0., 0., 0., 0., 0., 0., 0., 0., 0., 0.,
       0., 0., 0., 0. ]
   oob_error: 1.5783783783783784e-01
   ntrees: 100
   trees:
      -
         nodes:
            -
               depth: 0
               value: 1.
               norm_class_idx: 1
               splits:
                  - { var:91, quality:6.6200115966796875e+02,
                      le:1.4500000000000000e+01 }
            -
               depth: 1
               value: 4.
               norm_class_idx: 4
               splits:
                  - { var:96, quality:3.2945391845703125e+02,
                      le:1.5000000000000000e+00 }
            -
               depth: 2
               value: 7.
               norm_class_idx: 7
               splits:
                  - { var:267, quality:3.0229241943359375e+02, le:7. }
            -
               depth: 3
               value: 7.
               norm_class_idx: 7
               splits:
                  - { var:347, quality:2.5895611572265625e+02, le:16. }
            -
               depth: 4
               value: 4.
               norm_class_idx: 4
               splits:
                  - { var:130, quality:2.3332618713378906e+02,
                      le:4.5000000000000000e+00 }
            -
               depth: 5
               value: 4.
               norm_class_idx: 4
            -
               depth: 5
               value: 7.
               norm_class_idx: 7
            -
               depth: 4
               value: 7.
               norm_class_idx: 7
               splits:
                  - { var:246, quality:1.3948596191406250e+02,
                      le:5.5000000000000000e+00 }
            -
               depth: 5
               value: 7.
               norm_class_idx: 7
            -
               depth: 5
               value: 9.
               norm_class_idx: 9
            -
               depth: 3
               value: 6.
               norm_class_idx: 6
               splits:
                  - { var:113, quality:1.4276623535156250e+02,
                      le:9.6500000000000000e+01 }
            -
               depth: 4
               value: 6.
               norm_class_idx: 6
               splits:
                  - { var:68, quality:9.3158271789550781e+01,
                      le:5.0000000000000000e-01 }
            -
               depth: 5
               value: 6.
               norm_class_idx: 6
            -
               depth: 5
               value: 6.
               norm_class_idx: 6
            -
               depth: 4
               value: 1.
               norm_class_idx: 1
               splits:
                  - { var:252, quality:1.3248788452148438e+02,
                      le:2.5000000000000000e+00 }
            -
               depth: 5
               value: 1.
               norm_class_idx: 1
            -
               depth: 5
               value: 4.
               norm_class_idx: 4
            -
               depth: 2
               value: 4.
               norm_class_idx: 4
               splits:
                  - { var:214, quality:1.5348800659179688e+02,
                      le:9.5000000000000000e+00 }
            -
               depth: 3
               value: 5.
               norm_class_idx: 5
               splits:
                  - { var:116, quality:1.0140666961669922e+02, le:146. }
            -
               depth: 4
               value: 4.
               norm_class_idx: 4
               splits:
                  - { var:173, quality:3.5577678680419922e+01, le:187. }
            -
               depth: 5
               value: 1.
               norm_class_idx: 1
            -
               depth: 5
               value: 4.
               norm_class_idx: 4
            -
               depth: 4
               value: 5.
               norm_class_idx: 5
               splits:
                  - { var:154, quality:9.1400001525878906e+01, le:202. }
            -
               depth: 5
               value: 5.
               norm_class_idx: 5
            -
               depth: 5
               value: 8.
               norm_class_idx: 8
            -
               depth: 3
               value: 4.
               norm_class_idx: 4
               splits:
                  - { var:130, quality:9.9049804687500000e+01, le:128. }
            -
               depth: 4
               value: 4.
               norm_class_idx: 4
               splits:
                  - { var:286, quality:9.3142860412597656e+01,
                      le:1.8650000000000000e+02 }
            -
               depth: 5
               value: 4.
               norm_class_idx: 4
            -
               depth: 5
               value: 2.
               norm_class_idx: 2
            -
               depth: 4
               value: 0.
               norm_class_idx: 0
               splits:
                  - { var:131, quality:1.6299999237060547e+01, le:132. }
            -
               depth: 5
               value: 4.
               norm_class_idx: 4
            -
               depth: 5
               value: 0.
               norm_class_idx: 0
            -
               depth: 1
               value: 3.
               norm_class_idx: 3
               splits:
                  - { var:191, quality:6.0587194824218750e+02,
                      le:5.0000000000000000e-01 }
            -
               depth: 2
               value: 0.
               norm_class_idx: 0
               splits:
                  - { var:245, quality:3.4005709838867188e+02, le:13. }
            -
               depth: 3
               value: 5.
               norm_class_idx: 5
               splits:
                  - { var:268, quality:6.2229293823242188e+01,
                      le:1.5950000000000000e+02 }
            -
               depth: 4
               value: 5.
               norm_class_idx: 5
               splits:
                  - { var:216, quality:5.1647891998291016e+01, le:48. }
            -
               depth: 5
               value: 5.
               norm_class_idx: 5
            -
               depth: 5
               value: 0.
               norm_class_idx: 0
            -
               depth: 4
               value: 6.
               norm_class_idx: 6
               splits:
                  - { var:208, quality:3.4102565765380859e+01, le:18. }
            -
               depth: 5
               value: 2.
               norm_class_idx: 2
            -
               depth: 5
               value: 6.
               norm_class_idx: 6
            -
               depth: 3
               value: 0.
               norm_class_idx: 0
               splits:
                  - { var:232, quality:3.8465786743164063e+02,
                      le:1.8550000000000000e+02 }
            -
               depth: 4
               value: 0.
               norm_class_idx: 0
               splits:
                  - { var:49, quality:3.5976141357421875e+02, le:65. }
            -
               depth: 5
               value: 0.
               norm_class_idx: 0
            -
               depth: 5
               value: 2.
               norm_class_idx: 2
            -
               depth: 4
               value: 2.
               norm_class_idx: 2
               splits:
                  - { var:283, quality:5.9679004669189453e+01,
                      le:5.0000000000000000e-01 }
            -
               depth: 5
               value: 6.
               norm_class_idx: 6
            -
               depth: 5
               value: 2.
               norm_class_idx: 2
            -
               depth: 2
               value: 8.
               norm_class_idx: 8
               splits:
                  - { var:266, quality:4.5741510009765625e+02,
                      le:2.2500000000000000e+01 }
            -
               depth: 3
               value: 3.
               norm_class_idx: 3
               splits:
                  - { var:187, quality:3.5207958984375000e+02,
                      le:5.0000000000000000e-01 }
            -
               depth: 4
               value: 1.
               norm_class_idx: 1
               splits:
                  - { var:108, quality:2.8074240112304688e+02,
                      le:1.5000000000000000e+00 }
            -
               depth: 5
               value: 1.
               norm_class_idx: 1
            -
               depth: 5
               value: 3.
               norm_class_idx: 3
            -
               depth: 4
               value: 3.
               norm_class_idx: 3
               splits:
                  - { var:325, quality:2.5855551147460938e+02,
                      le:4.5000000000000000e+00 }
            -
               depth: 5
               value: 9.
               norm_class_idx: 9
            -
               depth: 5
               value: 3.
               norm_class_idx: 3
            -
               depth: 3
               value: 8.
               norm_class_idx: 8
               splits:
                  - { var:134, quality:3.0489550781250000e+02,
                      le:5.0000000000000000e-01 }
            -
               depth: 4
               value: 6.
               norm_class_idx: 6
               splits:
                  - { var:195, quality:1.4760661315917969e+02,
                      le:3.5000000000000000e+00 }
            -
               depth: 5
               value: 6.
               norm_class_idx: 6
            -
               depth: 5
               value: 6.
               norm_class_idx: 6
            -
               depth: 4
               value: 8.
               norm_class_idx: 8
               splits:
                  - { var:244, quality:2.4276411437988281e+02, le:9. }
            -
               depth: 5
               value: 8.
               norm_class_idx: 8
            -
               depth: 5
               value: 2.
               norm_class_idx: 2
      -
         nodes:
            -
               depth: 0
               value: 4.
               norm_class_idx: 4
               splits:
                  - { var:191, quality:6.7498699951171875e+02,
                      le:5.0000000000000000e-01 }
            -
               depth: 1
               value: 0.
               norm_class_idx: 0
               splits:
                  - { var:197, quality:3.3976715087890625e+02,
                      le:2.5000000000000000e+00 }
            -
               depth: 2
               value: 0.
               norm_class_idx: 0
               splits:
                  - { var:229, quality:2.6092749023437500e+02,
                      le:5.5000000000000000e+00 }
            -
               depth: 3
               value: 0.
               norm_class_idx: 0
               splits:
                  - { var:71, quality:2.6835931396484375e+02,
                      le:3.5000000000000000e+00 }
            -
               depth: 4
               value: 7.
               norm_class_idx: 7
               splits:
                  - { var:263, quality:1.0604563140869141e+02, le:29. }
            -
               depth: 5
               value: 7.
               norm_class_idx: 7
            -
               depth: 5
               value: 0.
               norm_class_idx: 0
            -
               depth: 4
               value: 0.
               norm_class_idx: 0
               splits:
                  - { var:52, quality:2.0624996948242188e+02, le:89. }
            -
               depth: 5
               value: 0.
               norm_class_idx: 0
            -
               depth: 5
               value: 6.
               norm_class_idx: 6
            -
               depth: 3
               value: 5.
               norm_class_idx: 5
               splits:
                  - { var:307, quality:1.3457456970214844e+02,
                      le:1.5000000000000000e+00 }
            -
               depth: 4
               value: 4.
               norm_class_idx: 4
               splits:
                  - { var:111, quality:7.4676689147949219e+01, le:15. }
            -
               depth: 5
               value: 4.
               norm_class_idx: 4
            -
               depth: 5
               value: 9.
               norm_class_idx: 9
            -
               depth: 4
               value: 5.
               norm_class_idx: 5
               splits:
                  - { var:192, quality:1.3883970642089844e+02,
                      le:5.0000000000000000e-01 }
            -
               depth: 5
               value: 5.
               norm_class_idx: 5
            -
               depth: 5
               value: 2.
               norm_class_idx: 2
            -
               depth: 2
               value: 0.
               norm_class_idx: 0
               splits:
                  - { var:247, quality:2.0295861816406250e+02, le:98. }
            -
               depth: 3
               value: 0.
               norm_class_idx: 0
               splits:
                  - { var:212, quality:2.0251515197753906e+02,
                      le:6.3500000000000000e+01 }
            -
               depth: 4
               value: 0.
               norm_class_idx: 0
               splits:
                  - { var:363, quality:2.0308695983886719e+02, le:58. }
            -
               depth: 5
               value: 0.
               norm_class_idx: 0
            -
               depth: 5
               value: 7.
               norm_class_idx: 7
            -
               depth: 4
               value: 6.
               norm_class_idx: 6
            -
               depth: 3
               value: 0.
               norm_class_idx: 0
               splits:
                  - { var:70, quality:1.4076923370361328e+01,
                      le:3.9500000000000000e+01 }
            -
               depth: 4
               value: 6.
               norm_class_idx: 6
               splits:
                  - { var:207, quality:1.0784314155578613e+01, le:15. }
            -
               depth: 5
               value: 2.
               norm_class_idx: 2
            -
               depth: 5
               value: 6.
               norm_class_idx: 6
            -
               depth: 4
               value: 0.
               norm_class_idx: 0
               splits:
                  - { var:152, quality:1.1181818008422852e+01,
                      le:2.1650000000000000e+02 }
            -
               depth: 5
               value: 0.
               norm_class_idx: 0
            -
               depth: 5
               value: 2.
               norm_class_idx: 2
            -
               depth: 1
               value: 8.
               norm_class_idx: 8
               splits:
                  - { var:207, quality:5.7522723388671875e+02,
                      le:2.5000000000000000e+00 }
            -
               depth: 2
               value: 1.
               norm_class_idx: 1
               splits:
                  - { var:126, quality:3.9227230834960938e+02,
                      le:5.0000000000000000e-01 }
            -
               depth: 3
               value: 1.
               norm_class_idx: 1
               splits:
                  - { var:68, quality:3.3815036010742188e+02,
                      le:1.0500000000000000e+01 }
            -
               depth: 4
               value: 1.
               norm_class_idx: 1
               splits:
                  - { var:192, quality:3.4491168212890625e+02, le:115. }
            -
               depth: 5
               value: 1.
               norm_class_idx: 1
            -
               depth: 5
               value: 8.
               norm_class_idx: 8
            -
               depth: 4
               value: 3.
               norm_class_idx: 3
               splits:
                  - { var:250, quality:1.0030585479736328e+02,
                      le:1.5450000000000000e+02 }
            -
               depth: 5
               value: 3.
               norm_class_idx: 3
            -
               depth: 5
               value: 2.
               norm_class_idx: 2
            -
               depth: 3
               value: 7.
               norm_class_idx: 7
               splits:
                  - { var:295, quality:1.7919636535644531e+02,
                      le:1.5000000000000000e+00 }
            -
               depth: 4
               value: 7.
               norm_class_idx: 7
               splits:
                  - { var:304, quality:1.6634951782226563e+02,
                      le:5.0000000000000000e-01 }
            -
               depth: 5
               value: 7.
               norm_class_idx: 7
            -
               depth: 5
               value: 3.
               norm_class_idx: 3
            -
               depth: 4
               value: 2.
               norm_class_idx: 2
               splits:
                  - { var:229, quality:5.4018939971923828e+01, le:20. }
            -
               depth: 5
               value: 3.
               norm_class_idx: 3
            -
               depth: 5
               value: 2.
               norm_class_idx: 2
            -
               depth: 2
               value: 9.
               norm_class_idx: 9
               splits:
                  - { var:267, quality:4.7111755371093750e+02,
                      le:9.0500000000000000e+01 }
            -
               depth: 3
               value: 9.
               norm_class_idx: 9
               splits:
                  - { var:326, quality:3.9763211059570313e+02,
                      le:3.0500000000000000e+01 }
            -
               depth: 4
               value: 4.
               norm_class_idx: 4
               splits:
                  - { var:225, quality:2.9195770263671875e+02, le:28. }
            -
               depth: 5
               value: 9.
               norm_class_idx: 9
            -
               depth: 5
               value: 4.
               norm_class_idx: 4
            -
               depth: 4
               value: 3.
               norm_class_idx: 3
               splits:
                  - { var:268, quality:1.9894302368164063e+02,
                      le:1.8500000000000000e+01 }
            -
               depth: 5
               value: 3.
               norm_class_idx: 3
            -
               depth: 5
               value: 9.
               norm_class_idx: 9
            -
               depth: 3
               value: 6.
               norm_class_idx: 6
               splits:
                  - { var:134, quality:2.9798178100585938e+02, le:9. }
            -
               depth: 4
               value: 6.
               norm_class_idx: 6
               splits:
                  - { var:187, quality:2.4311453247070313e+02,
                      le:1.0500000000000000e+01 }
            -
               depth: 5
               value: 2.
               norm_class_idx: 2
            -
               depth: 5
               value: 6.
               norm_class_idx: 6
            -
               depth: 4
               value: 8.
               norm_class_idx: 8
               splits:
                  - { var:276, quality:1.2654853057861328e+02, le:6. }
            -
               depth: 5
               value: 8.
               norm_class_idx: 8
            -
               depth: 5
               value: 2.
               norm_class_idx: 2
      -
         nodes:
            -
               depth: 0
               value: 3.
               norm_class_idx: 3
               splits:
                  - { var:186, quality:6.8902563476562500e+02,
                      le:9.5000000000000000e+00 }
            -
               depth: 1
               value: 1.
               norm_class_idx: 1
               splits:
                  - { var:252, quality:4.8848953247070313e+02,
                      le:1.5000000000000000e+00 }
            -
               depth: 2
               value: 1.
               norm_class_idx: 1
               splits:
                  - { var:108, quality:3.5912789916992188e+02,
                      le:5.0000000000000000e-01 }
            -
               depth: 3
               value: 1.
               norm_class_idx: 1
               splits:
                  - { var:255, quality:3.2725100708007813e+02, le:1. }
            -
               depth: 4
               value: 1.
               norm_class_idx: 1
               splits:
                  - { var:284, quality:3.5874490356445313e+02,
                      le:5.0000000000000000e-01 }
            -
               depth: 5
               value: 1.
               norm_class_idx: 1
            -
               depth: 5
               value: 8.
               norm_class_idx: 8
            -
               depth: 4
               value: 2.
               norm_class_idx: 2
               splits:
                  - { var:248, quality:1.1866666793823242e+01, le:72. }
            -
               depth: 5
               value: 3.
               norm_class_idx: 3
            -
               depth: 5
               value: 2.
               norm_class_idx: 2
            -
               depth: 3
               value: 2.
               norm_class_idx: 2
               splits:
                  - { var:311, quality:8.4272422790527344e+01,
                      le:3.1500000000000000e+01 }
            -
               depth: 4
               value: 7.
               norm_class_idx: 7
               splits:
                  - { var:305, quality:6.1171722412109375e+01,
                      le:1.3850000000000000e+02 }
            -
               depth: 5
               value: 7.
               norm_class_idx: 7
            -
               depth: 5
               value: 8.
               norm_class_idx: 8
            -
               depth: 4
               value: 2.
               norm_class_idx: 2
               splits:
                  - { var:287, quality:7.1026832580566406e+01,
                      le:4.5000000000000000e+00 }
            -
               depth: 5
               value: 1.
               norm_class_idx: 1
            -
               depth: 5
               value: 2.
               norm_class_idx: 2
            -
               depth: 2
               value: 2.
               norm_class_idx: 2
               splits:
                  - { var:287, quality:3.1974725341796875e+02,
                      le:4.8500000000000000e+01 }
            -
               depth: 3
               value: 7.
               norm_class_idx: 7
               splits:
                  - { var:368, quality:2.1416273498535156e+02,
                      le:1.5000000000000000e+00 }
            -
               depth: 4
               value: 3.
               norm_class_idx: 3
               splits:
                  - { var:372, quality:1.4661950683593750e+02,
                      le:1.5000000000000000e+00 }
            -
               depth: 5
               value: 3.
               norm_class_idx: 3
            -
               depth: 5
               value: 7.
               norm_class_idx: 7
            -
               depth: 4
               value: 7.
               norm_class_idx: 7
               splits:
                  - { var:92, quality:1.2484967041015625e+02,
                      le:6.9500000000000000e+01 }
            -
               depth: 5
               value: 7.
               norm_class_idx: 7
            -
               depth: 5
               value: 3.
               norm_class_idx: 3
            -
               depth: 3
               value: 2.
               norm_class_idx: 2
               splits:
                  - { var:188, quality:2.4406867980957031e+02,
                      le:1.1750000000000000e+02 }
            -
               depth: 4
               value: 2.
               norm_class_idx: 2
               splits:
                  - { var:348, quality:2.1302848815917969e+02,
                      le:8.5000000000000000e+00 }
            -
               depth: 5
               value: 2.
               norm_class_idx: 2
            -
               depth: 5
               value: 8.
               norm_class_idx: 8
            -
               depth: 4
               value: 6.
               norm_class_idx: 6
               splits:
                  - { var:89, quality:1.0624015045166016e+02, le:93. }
            -
               depth: 5
               value: 6.
               norm_class_idx: 6
            -
               depth: 5
               value: 8.
               norm_class_idx: 8
            -
               depth: 1
               value: 4.
               norm_class_idx: 4
               splits:
                  - { var:228, quality:4.9437927246093750e+02,
                      le:4.5000000000000000e+00 }
            -
               depth: 2
               value: 0.
               norm_class_idx: 0
               splits:
                  - { var:245, quality:3.6104614257812500e+02,
                      le:1.8500000000000000e+01 }
            -
               depth: 3
               value: 7.
               norm_class_idx: 7
               splits:
                  - { var:190, quality:1.7117800903320313e+02,
                      le:9.4500000000000000e+01 }
            -
               depth: 4
               value: 7.
               norm_class_idx: 7
               splits:
                  - { var:174, quality:1.3117481994628906e+02,
                      le:8.8500000000000000e+01 }
            -
               depth: 5
               value: 7.
               norm_class_idx: 7
            -
               depth: 5
               value: 7.
               norm_class_idx: 7
            -
               depth: 4
               value: 5.
               norm_class_idx: 5
               splits:
                  - { var:170, quality:7.6251121520996094e+01,
                      le:1.4550000000000000e+02 }
            -
               depth: 5
               value: 5.
               norm_class_idx: 5
            -
               depth: 5
               value: 3.
               norm_class_idx: 3
            -
               depth: 3
               value: 0.
               norm_class_idx: 0
               splits:
                  - { var:114, quality:3.1265979003906250e+02,
                      le:5.0000000000000000e-01 }
            -
               depth: 4
               value: 6.
               norm_class_idx: 6
               splits:
                  - { var:328, quality:7.9089996337890625e+01,
                      le:1.2250000000000000e+02 }
            -
               depth: 5
               value: 6.
               norm_class_idx: 6
            -
               depth: 5
               value: 0.
               norm_class_idx: 0
            -
               depth: 4
               value: 0.
               norm_class_idx: 0
               splits:
                  - { var:284, quality:2.6939895629882813e+02,
                      le:5.0000000000000000e-01 }
            -
               depth: 5
               value: 0.
               norm_class_idx: 0
            -
               depth: 5
               value: 0.
               norm_class_idx: 0
            -
               depth: 2
               value: 4.
               norm_class_idx: 4
               splits:
                  - { var:266, quality:3.6046078491210938e+02,
                      le:6.5000000000000000e+00 }
            -
               depth: 3
               value: 9.
               norm_class_idx: 9
               splits:
                  - { var:172, quality:3.0991674804687500e+02,
                      le:5.0000000000000000e-01 }
            -
               depth: 4
               value: 5.
               norm_class_idx: 5
               splits:
                  - { var:214, quality:1.1405036163330078e+02,
                      le:1.3500000000000000e+01 }
            -
               depth: 5
               value: 5.
               norm_class_idx: 5
            -
               depth: 5
               value: 4.
               norm_class_idx: 4
            -
               depth: 4
               value: 9.
               norm_class_idx: 9
               splits:
                  - { var:75, quality:2.6450213623046875e+02,
                      le:5.0000000000000000e-01 }
            -
               depth: 5
               value: 9.
               norm_class_idx: 9
            -
               depth: 5
               value: 4.
               norm_class_idx: 4
            -
               depth: 3
               value: 6.
               norm_class_idx: 6
               splits:
                  - { var:331, quality:1.4849763488769531e+02,
                      le:1.3450000000000000e+02 }
            -
               depth: 4
               value: 6.
               norm_class_idx: 6
               splits:
                  - { var:134, quality:1.8773165893554688e+02, le:9. }
            -
               depth: 5
               value: 6.
               norm_class_idx: 6
            -
               depth: 5
               value: 4.
               norm_class_idx: 4
            -
               depth: 4
               value: 8.
               norm_class_idx: 8
               splits:
                  - { var:248, quality:6.4233421325683594e+01,
                      le:7.5000000000000000e+00 }
            -
               depth: 5
               value: 3.
               norm_class_idx: 3
            -
               depth: 5
               value: 8.
               norm_class_idx: 8
      -
         nodes:
            -
               depth: 0
               value: 9.
               norm_class_idx: 9
               splits:
                  - { var:305, quality:7.0206250000000000e+02,
                      le:1.3500000000000000e+01 }
            -
               depth: 1
               value: 9.
               norm_class_idx: 9
               splits:
                  - { var:133, quality:5.5370794677734375e+02,
                      le:1.5000000000000000e+00 }
            -
               depth: 2
               value: 6.
               norm_class_idx: 6
               splits:
                  - { var:51, quality:3.7515695190429688e+02,
                      le:3.9500000000000000e+01 }
            -
               depth: 3
               value: 1.
               norm_class_idx: 1
               splits:
                  - { var:147, quality:2.0628012084960938e+02,
                      le:5.0000000000000000e-01 }
            -
               depth: 4
               value: 1.
               norm_class_idx: 1
               splits:
                  - { var:287, quality:1.8133503723144531e+02,
                      le:3.9500000000000000e+01 }
            -
               depth: 5
               value: 1.
               norm_class_idx: 1
            -
               depth: 5
               value: 6.
               norm_class_idx: 6
            -
               depth: 4
               value: 6.
               norm_class_idx: 6
               splits:
                  - { var:287, quality:1.2043299102783203e+02, le:10. }
            -
               depth: 5
               value: 4.
               norm_class_idx: 4
            -
               depth: 5
               value: 6.
               norm_class_idx: 6
            -
               depth: 3
               value: 6.
               norm_class_idx: 6
               splits:
                  - { var:151, quality:2.5038432312011719e+02, le:185. }
            -
               depth: 4
               value: 6.
               norm_class_idx: 6
               splits:
                  - { var:29, quality:2.4939694213867188e+02, le:59. }
            -
               depth: 5
               value: 6.
               norm_class_idx: 6
            -
               depth: 5
               value: 2.
               norm_class_idx: 2
            -
               depth: 4
               value: 2.
               norm_class_idx: 2
            -
               depth: 2
               value: 9.
               norm_class_idx: 9
               splits:
                  - { var:147, quality:3.8671936035156250e+02,
                      le:5.0000000000000000e-01 }
            -
               depth: 3
               value: 1.
               norm_class_idx: 1
               splits:
                  - { var:213, quality:1.1608466339111328e+02,
                      le:5.0000000000000000e-01 }
            -
               depth: 4
               value: 1.
               norm_class_idx: 1
               splits:
                  - { var:210, quality:1.0487884521484375e+02,
                      le:2.0450000000000000e+02 }
            -
               depth: 5
               value: 3.
               norm_class_idx: 3
            -
               depth: 5
               value: 1.
               norm_class_idx: 1
            -
               depth: 4
               value: 4.
               norm_class_idx: 4
               splits:
                  - { var:288, quality:4.9374340057373047e+01,
                      le:4.5000000000000000e+00 }
            -
               depth: 5
               value: 4.
               norm_class_idx: 4
            -
               depth: 5
               value: 2.
               norm_class_idx: 2
            -
               depth: 3
               value: 9.
               norm_class_idx: 9
               splits:
                  - { var:206, quality:4.5273965454101563e+02,
                      le:2.4500000000000000e+01 }
            -
               depth: 4
               value: 7.
               norm_class_idx: 7
               splits:
                  - { var:189, quality:3.4361828613281250e+02,
                      le:1.2500000000000000e+01 }
            -
               depth: 5
               value: 7.
               norm_class_idx: 7
            -
               depth: 5
               value: 8.
               norm_class_idx: 8
            -
               depth: 4
               value: 9.
               norm_class_idx: 9
               splits:
                  - { var:90, quality:3.4997003173828125e+02,
                      le:1.5000000000000000e+00 }
            -
               depth: 5
               value: 4.
               norm_class_idx: 4
            -
               depth: 5
               value: 9.
               norm_class_idx: 9
            -
               depth: 1
               value: 0.
               norm_class_idx: 0
               splits:
                  - { var:212, quality:4.3621414184570313e+02,
                      le:5.5000000000000000e+00 }
            -
               depth: 2
               value: 0.
               norm_class_idx: 0
               splits:
                  - { var:215, quality:3.3977719116210938e+02,
                      le:2.5500000000000000e+01 }
            -
               depth: 3
               value: 5.
               norm_class_idx: 5
               splits:
                  - { var:190, quality:1.0228626251220703e+02, le:107. }
            -
               depth: 4
               value: 5.
               norm_class_idx: 5
               splits:
                  - { var:229, quality:7.8088417053222656e+01, le:13. }
            -
               depth: 5
               value: 0.
               norm_class_idx: 0
            -
               depth: 5
               value: 5.
               norm_class_idx: 5
            -
               depth: 4
               value: 1.
               norm_class_idx: 1
               splits:
                  - { var:156, quality:6.0500000000000000e+01,
                      le:5.0000000000000000e-01 }
            -
               depth: 5
               value: 1.
               norm_class_idx: 1
            -
               depth: 5
               value: 8.
               norm_class_idx: 8
            -
               depth: 3
               value: 0.
               norm_class_idx: 0
               splits:
                  - { var:186, quality:3.0565164184570313e+02,
                      le:2.5000000000000000e+00 }
            -
               depth: 4
               value: 0.
               norm_class_idx: 0
               splits:
                  - { var:184, quality:2.5741935729980469e+01, le:76. }
            -
               depth: 5
               value: 2.
               norm_class_idx: 2
            -
               depth: 5
               value: 0.
               norm_class_idx: 0
            -
               depth: 4
               value: 0.
               norm_class_idx: 0
               splits:
                  - { var:210, quality:2.9941354370117188e+02,
                      le:2.3500000000000000e+01 }
            -
               depth: 5
               value: 0.
               norm_class_idx: 0
            -
               depth: 5
               value: 2.
               norm_class_idx: 2
            -
               depth: 2
               value: 3.
               norm_class_idx: 3
               splits:
                  - { var:348, quality:3.2172772216796875e+02,
                      le:5.0000000000000000e-01 }
            -
               depth: 3
               value: 2.
               norm_class_idx: 2
               splits:
                  - { var:70, quality:1.8578823852539063e+02, le:60. }
            -
               depth: 4
               value: 5.
               norm_class_idx: 5
               splits:
                  - { var:89, quality:6.2777023315429688e+01,
                      le:2.5000000000000000e+00 }
            -
               depth: 5
               value: 5.
               norm_class_idx: 5
            -
               depth: 5
               value: 2.
               norm_class_idx: 2
            -
               depth: 4
               value: 2.
               norm_class_idx: 2
               splits:
                  - { var:190, quality:1.6238481140136719e+02, le:129. }
            -
               depth: 5
               value: 2.
               norm_class_idx: 2
            -
               depth: 5
               value: 2.
               norm_class_idx: 2
            -
               depth: 3
               value: 3.
               norm_class_idx: 3
               splits:
                  - { var:254, quality:2.4764965820312500e+02,
                      le:2.5000000000000000e+00 }
            -
               depth: 4
               value: 8.
               norm_class_idx: 8
               splits:
                  - { var:174, quality:1.5406350708007813e+02, le:2. }
            -
               depth: 5
               value: 5.
               norm_class_idx: 5
            -
               depth: 5
               value: 8.
               norm_class_idx: 8
            -
               depth: 4
               value: 3.
               norm_class_idx: 3
               splits:
                  - { var:175, quality:1.7305506896972656e+02,
                      le:2.5000000000000000e+00 }
            -
               depth: 5
               value: 3.
               norm_class_idx: 3
            -
               depth: 5
               value: 0.
               norm_class_idx: 0
      -
         nodes:
            -
               depth: 0
               value: 6.
               norm_class_idx: 6
               splits:
                  - { var:206, quality:6.8766204833984375e+02,
                      le:5.0000000000000000e-01 }
            -
               depth: 1
               value: 1.
               norm_class_idx: 1
               splits:
                  - { var:127, quality:4.9895443725585938e+02,
                      le:5.0000000000000000e-01 }
            -
               depth: 2
               value: 1.
               norm_class_idx: 1
               splits:
                  - { var:170, quality:3.5369052124023438e+02, le:71. }
            -
               depth: 3
               value: 2.
               norm_class_idx: 2
               splits:
                  - { var:305, quality:7.0796508789062500e+01,
                      le:6.5000000000000000e+00 }
            -
               depth: 4
               value: 6.
               norm_class_idx: 6
               splits:
                  - { var:133, quality:3.1819259643554688e+01, le:2. }
            -
               depth: 5
               value: 6.
               norm_class_idx: 6
            -
               depth: 5
               value: 0.
               norm_class_idx: 0
            -
               depth: 4
               value: 2.
               norm_class_idx: 2
               splits:
                  - { var:88, quality:7.6407302856445313e+01, le:13. }
            -
               depth: 5
               value: 8.
               norm_class_idx: 8
            -
               depth: 5
               value: 2.
               norm_class_idx: 2
            -
               depth: 3
               value: 1.
               norm_class_idx: 1
               splits:
                  - { var:233, quality:4.1217318725585938e+02,
                      le:5.0000000000000000e-01 }
            -
               depth: 4
               value: 1.
               norm_class_idx: 1
               splits:
                  - { var:295, quality:3.8985015869140625e+02, le:3. }
            -
               depth: 5
               value: 1.
               norm_class_idx: 1
            -
               depth: 5
               value: 2.
               norm_class_idx: 2
            -
               depth: 4
               value: 3.
               norm_class_idx: 3
               splits:
                  - { var:69, quality:9.6199874877929688e+01, le:20. }
            -
               depth: 5
               value: 6.
               norm_class_idx: 6
            -
               depth: 5
               value: 3.
               norm_class_idx: 3
            -
               depth: 2
               value: 7.
               norm_class_idx: 7
               splits:
                  - { var:69, quality:3.4013531494140625e+02,
                      le:5.0000000000000000e-01 }
            -
               depth: 3
               value: 7.
               norm_class_idx: 7
               splits:
                  - { var:125, quality:2.8297399902343750e+02,
                      le:4.5000000000000000e+00 }
            -
               depth: 4
               value: 8.
               norm_class_idx: 8
               splits:
                  - { var:94, quality:8.7346679687500000e+01,
                      le:3.1500000000000000e+01 }
            -
               depth: 5
               value: 7.
               norm_class_idx: 7
            -
               depth: 5
               value: 8.
               norm_class_idx: 8
            -
               depth: 4
               value: 7.
               norm_class_idx: 7
               splits:
                  - { var:286, quality:2.5284066772460938e+02, le:11. }
            -
               depth: 5
               value: 7.
               norm_class_idx: 7
            -
               depth: 5
               value: 2.
               norm_class_idx: 2
            -
               depth: 3
               value: 8.
               norm_class_idx: 8
               splits:
                  - { var:269, quality:1.4925125122070313e+02, le:5. }
            -
               depth: 4
               value: 3.
               norm_class_idx: 3
               splits:
                  - { var:190, quality:8.2807540893554688e+01, le:63. }
            -
               depth: 5
               value: 5.
               norm_class_idx: 5
            -
               depth: 5
               value: 3.
               norm_class_idx: 3
            -
               depth: 4
               value: 2.
               norm_class_idx: 2
               splits:
                  - { var:190, quality:1.0705101776123047e+02,
                      le:6.3500000000000000e+01 }
            -
               depth: 5
               value: 2.
               norm_class_idx: 2
            -
               depth: 5
               value: 8.
               norm_class_idx: 8
            -
               depth: 1
               value: 4.
               norm_class_idx: 4
               splits:
                  - { var:305, quality:5.4260998535156250e+02,
                      le:1.5000000000000000e+00 }
            -
               depth: 2
               value: 4.
               norm_class_idx: 4
               splits:
                  - { var:267, quality:4.7943444824218750e+02, le:96. }
            -
               depth: 3
               value: 4.
               norm_class_idx: 4
               splits:
                  - { var:128, quality:3.3933258056640625e+02, le:81. }
            -
               depth: 4
               value: 4.
               norm_class_idx: 4
               splits:
                  - { var:90, quality:1.7291880798339844e+02,
                      le:1.5500000000000000e+01 }
            -
               depth: 5
               value: 4.
               norm_class_idx: 4
            -
               depth: 5
               value: 3.
               norm_class_idx: 3
            -
               depth: 4
               value: 9.
               norm_class_idx: 9
               splits:
                  - { var:227, quality:2.4378819274902344e+02,
                      le:7.5000000000000000e+00 }
            -
               depth: 5
               value: 7.
               norm_class_idx: 7
            -
               depth: 5
               value: 9.
               norm_class_idx: 9
            -
               depth: 3
               value: 6.
               norm_class_idx: 6
               splits:
                  - { var:152, quality:2.4728759765625000e+02,
                      le:3.5000000000000000e+00 }
            -
               depth: 4
               value: 6.
               norm_class_idx: 6
               splits:
                  - { var:163, quality:2.2191180419921875e+02,
                      le:3.5000000000000000e+00 }
            -
               depth: 5
               value: 6.
               norm_class_idx: 6
            -
               depth: 5
               value: 4.
               norm_class_idx: 4
            -
               depth: 4
               value: 6.
               norm_class_idx: 6
               splits:
                  - { var:250, quality:5.1901638031005859e+01, le:4. }
            -
               depth: 5
               value: 0.
               norm_class_idx: 0
            -
               depth: 5
               value: 6.
               norm_class_idx: 6
            -
               depth: 2
               value: 0.
               norm_class_idx: 0
               splits:
                  - { var:215, quality:3.5693603515625000e+02,
                      le:5.0000000000000000e-01 }
            -
               depth: 3
               value: 5.
               norm_class_idx: 5
               splits:
                  - { var:250, quality:1.6402743530273438e+02,
                      le:2.0950000000000000e+02 }
            -
               depth: 4
               value: 5.
               norm_class_idx: 5
               splits:
                  - { var:90, quality:1.4321774291992188e+02,
                      le:2.0500000000000000e+01 }
            -
               depth: 5
               value: 5.
               norm_class_idx: 5
            -
               depth: 5
               value: 3.
               norm_class_idx: 3
            -
               depth: 4
               value: 2.
               norm_class_idx: 2
               splits:
                  - { var:89, quality:7.3975151062011719e+01, le:4. }
            -
               depth: 5
               value: 5.
               norm_class_idx: 5
            -
               depth: 5
               value: 2.
               norm_class_idx: 2
            -
               depth: 3
               value: 0.
               norm_class_idx: 0
               splits:
                  - { var:135, quality:2.8777368164062500e+02,
                      le:2.5000000000000000e+00 }
            -
               depth: 4
               value: 6.
               norm_class_idx: 6
               splits:
                  - { var:330, quality:8.2217834472656250e+01, le:21. }
            -
               depth: 5
               value: 6.
               norm_class_idx: 6
            -
               depth: 5
               value: 0.
               norm_class_idx: 0
            -
               depth: 4
               value: 0.
               norm_class_idx: 0
               splits:
                  - { var:329, quality:2.7674929809570313e+02,
                      le:3.7500000000000000e+01 }
            -
               depth: 5
               value: 2.
               norm_class_idx: 2
            -
               depth: 5
               value: 0.
               norm_class_idx: 0
      -
         nodes:
            -
               depth: 0
               value: 3.
               norm_class_idx: 3
               splits:
                  - { var:52, quality:6.9582244873046875e+02,
                      le:4.2500000000000000e+01 }
            -
               depth: 1
               value: 5.
               norm_class_idx: 5
               splits:
                  - { var:286, quality:6.6148974609375000e+02,
                      le:1.5000000000000000e+00 }
            -
               depth: 2
               value: 4.
               norm_class_idx: 4
               splits:
                  - { var:91, quality:4.7233355712890625e+02,
                      le:2.5000000000000000e+00 }
            -
               depth: 3
               value: 4.
               norm_class_idx: 4
               splits:
                  - { var:248, quality:3.5228298950195313e+02,
                      le:3.5000000000000000e+00 }
            -
               depth: 4
               value: 7.
               norm_class_idx: 7
               splits:
                  - { var:94, quality:1.9278994750976563e+02,
                      le:1.1500000000000000e+01 }
            -
               depth: 5
               value: 7.
               norm_class_idx: 7
            -
               depth: 5
               value: 4.
               norm_class_idx: 4
            -
               depth: 4
               value: 4.
               norm_class_idx: 4
               splits:
                  - { var:269, quality:2.0469131469726563e+02,
                      le:2.4550000000000000e+02 }
            -
               depth: 5
               value: 4.
               norm_class_idx: 4
            -
               depth: 5
               value: 1.
               norm_class_idx: 1
            -
               depth: 3
               value: 9.
               norm_class_idx: 9
               splits:
                  - { var:212, quality:3.5861959838867188e+02,
                      le:3.1500000000000000e+01 }
            -
               depth: 4
               value: 1.
               norm_class_idx: 1
               splits:
                  - { var:273, quality:1.9601150512695313e+02,
                      le:5.0000000000000000e-01 }
            -
               depth: 5
               value: 1.
               norm_class_idx: 1
            -
               depth: 5
               value: 5.
               norm_class_idx: 5
            -
               depth: 4
               value: 9.
               norm_class_idx: 9
               splits:
                  - { var:69, quality:2.9721151733398438e+02,
                      le:5.0000000000000000e-01 }
            -
               depth: 5
               value: 9.
               norm_class_idx: 9
            -
               depth: 5
               value: 3.
               norm_class_idx: 3
            -
               depth: 2
               value: 0.
               norm_class_idx: 0
               splits:
                  - { var:190, quality:4.7216107177734375e+02,
                      le:2.5000000000000000e+00 }
            -
               depth: 3
               value: 0.
               norm_class_idx: 0
               splits:
                  - { var:249, quality:3.9988214111328125e+02,
                      le:2.5000000000000000e+00 }
            -
               depth: 4
               value: 0.
               norm_class_idx: 0
               splits:
                  - { var:113, quality:3.4057992553710938e+02, le:4. }
            -
               depth: 5
               value: 6.
               norm_class_idx: 6
            -
               depth: 5
               value: 0.
               norm_class_idx: 0
            -
               depth: 4
               value: 2.
               norm_class_idx: 2
               splits:
                  - { var:173, quality:1.0855577087402344e+02, le:13. }
            -
               depth: 5
               value: 5.
               norm_class_idx: 5
            -
               depth: 5
               value: 2.
               norm_class_idx: 2
            -
               depth: 3
               value: 8.
               norm_class_idx: 8
               splits:
                  - { var:230, quality:3.1940112304687500e+02,
                      le:1.2850000000000000e+02 }
            -
               depth: 4
               value: 3.
               norm_class_idx: 3
               splits:
                  - { var:89, quality:1.8973757934570313e+02,
                      le:7.6500000000000000e+01 }
            -
               depth: 5
               value: 5.
               norm_class_idx: 5
            -
               depth: 5
               value: 3.
               norm_class_idx: 3
            -
               depth: 4
               value: 8.
               norm_class_idx: 8
               splits:
                  - { var:89, quality:2.3919622802734375e+02,
                      le:5.0000000000000000e-01 }
            -
               depth: 5
               value: 1.
               norm_class_idx: 1
            -
               depth: 5
               value: 8.
               norm_class_idx: 8
            -
               depth: 1
               value: 6.
               norm_class_idx: 6
               splits:
                  - { var:128, quality:2.7543844604492188e+02,
                      le:2.5000000000000000e+00 }
            -
               depth: 2
               value: 2.
               norm_class_idx: 2
               splits:
                  - { var:228, quality:6.3044788360595703e+01,
                      le:2.5000000000000000e+00 }
            -
               depth: 3
               value: 3.
               norm_class_idx: 3
               splits:
                  - { var:327, quality:1.7799999237060547e+01,
                      le:2.7500000000000000e+01 }
            -
               depth: 4
               value: 0.
               norm_class_idx: 0
            -
               depth: 4
               value: 3.
               norm_class_idx: 3
            -
               depth: 3
               value: 2.
               norm_class_idx: 2
               splits:
                  - { var:49, quality:7.2279998779296875e+01, le:1. }
            -
               depth: 4
               value: 6.
               norm_class_idx: 6
               splits:
                  - { var:170, quality:3.0236841201782227e+01, le:3. }
            -
               depth: 5
               value: 2.
               norm_class_idx: 2
            -
               depth: 5
               value: 6.
               norm_class_idx: 6
            -
               depth: 4
               value: 2.
               norm_class_idx: 2
            -
               depth: 2
               value: 6.
               norm_class_idx: 6
               splits:
                  - { var:93, quality:2.5386820983886719e+02,
                      le:1.3750000000000000e+02 }
            -
               depth: 3
               value: 6.
               norm_class_idx: 6
               splits:
                  - { var:263, quality:2.4158729553222656e+02, le:10. }
            -
               depth: 4
               value: 6.
               norm_class_idx: 6
               splits:
                  - { var:76, quality:2.4019123840332031e+02, le:99. }
            -
               depth: 5
               value: 6.
               norm_class_idx: 6
            -
               depth: 5
               value: 2.
               norm_class_idx: 2
            -
               depth: 4
               value: 2.
               norm_class_idx: 2
            -
               depth: 3
               value: 2.
               norm_class_idx: 2
               splits:
                  - { var:187, quality:3.4158386230468750e+01, le:71. }
            -
               depth: 4
               value: 2.
               norm_class_idx: 2
               splits:
                  - { var:53, quality:23., le:204. }
            -
               depth: 5
               value: 2.
               norm_class_idx: 2
            -
               depth: 5
               value: 8.
               norm_class_idx: 8
            -
               depth: 4
               value: 6.
               norm_class_idx: 6
               splits:
                  - { var:91, quality:2.0311111450195313e+01, le:189. }
            -
               depth: 5
               value: 2.
               norm_class_idx: 2
            -
               depth: 5
               value: 6.
               norm_class_idx: 6
      -
         nodes:
            -
               depth: 0
               value: 8.
               norm_class_idx: 8
               splits:
                  - { var:71, quality:7.0654754638671875e+02,
                      le:5.0000000000000000e-01 }
            -
               depth: 1
               value: 9.
               norm_class_idx: 9
               splits:
                  - { var:193, quality:4.7200842285156250e+02,
                      le:8.5000000000000000e+00 }
            -
               depth: 2
               value: 5.
               norm_class_idx: 5
               splits:
                  - { var:284, quality:2.2674191284179688e+02,
                      le:5.0000000000000000e-01 }
            -
               depth: 3
               value: 1.
               norm_class_idx: 1
               splits:
                  - { var:212, quality:1.3439147949218750e+02,
                      le:2.5500000000000000e+01 }
            -
               depth: 4
               value: 1.
               norm_class_idx: 1
               splits:
                  - { var:273, quality:1.3041709899902344e+02, le:3. }
            -
               depth: 5
               value: 1.
               norm_class_idx: 1
            -
               depth: 5
               value: 5.
               norm_class_idx: 5
            -
               depth: 4
               value: 9.
               norm_class_idx: 9
               splits:
                  - { var:192, quality:5.3511444091796875e+01, le:104. }
            -
               depth: 5
               value: 5.
               norm_class_idx: 5
            -
               depth: 5
               value: 9.
               norm_class_idx: 9
            -
               depth: 3
               value: 5.
               norm_class_idx: 5
               splits:
                  - { var:194, quality:1.6351388549804688e+02,
                      le:1.0500000000000000e+01 }
            -
               depth: 4
               value: 5.
               norm_class_idx: 5
               splits:
                  - { var:197, quality:1.7153475952148438e+02, le:2. }
            -
               depth: 5
               value: 5.
               norm_class_idx: 5
            -
               depth: 5
               value: 0.
               norm_class_idx: 0
            -
               depth: 4
               value: 0.
               norm_class_idx: 0
               splits:
                  - { var:335, quality:31., le:28. }
            -
               depth: 5
               value: 0.
               norm_class_idx: 0
            -
               depth: 5
               value: 8.
               norm_class_idx: 8
            -
               depth: 2
               value: 9.
               norm_class_idx: 9
               splits:
                  - { var:76, quality:3.6880429077148438e+02, le:1. }
            -
               depth: 3
               value: 9.
               norm_class_idx: 9
               splits:
                  - { var:112, quality:3.6832437133789063e+02,
                      le:6.4500000000000000e+01 }
            -
               depth: 4
               value: 4.
               norm_class_idx: 4
               splits:
                  - { var:226, quality:2.0847010803222656e+02, le:28. }
            -
               depth: 5
               value: 7.
               norm_class_idx: 7
            -
               depth: 5
               value: 4.
               norm_class_idx: 4
            -
               depth: 4
               value: 9.
               norm_class_idx: 9
               splits:
                  - { var:207, quality:3.3793179321289063e+02,
                      le:8.5000000000000000e+00 }
            -
               depth: 5
               value: 7.
               norm_class_idx: 7
            -
               depth: 5
               value: 9.
               norm_class_idx: 9
            -
               depth: 3
               value: 4.
               norm_class_idx: 4
               splits:
                  - { var:304, quality:8.9160064697265625e+01, le:8. }
            -
               depth: 4
               value: 4.
               norm_class_idx: 4
               splits:
                  - { var:354, quality:8.5244445800781250e+01,
                      le:3.7500000000000000e+01 }
            -
               depth: 5
               value: 4.
               norm_class_idx: 4
            -
               depth: 5
               value: 5.
               norm_class_idx: 5
            -
               depth: 4
               value: 5.
               norm_class_idx: 5
               splits:
                  - { var:115, quality:1.5920000076293945e+01,
                      le:2.4550000000000000e+02 }
            -
               depth: 5
               value: 5.
               norm_class_idx: 5
            -
               depth: 5
               value: 0.
               norm_class_idx: 0
            -
               depth: 1
               value: 8.
               norm_class_idx: 8
               splits:
                  - { var:249, quality:5.6079443359375000e+02,
                      le:2.5000000000000000e+00 }
            -
               depth: 2
               value: 0.
               norm_class_idx: 0
               splits:
                  - { var:245, quality:4.3186297607421875e+02,
                      le:3.5500000000000000e+01 }
            -
               depth: 3
               value: 3.
               norm_class_idx: 3
               splits:
                  - { var:147, quality:2.3727407836914063e+02, le:46. }
            -
               depth: 4
               value: 3.
               norm_class_idx: 3
               splits:
                  - { var:69, quality:1.9512661743164063e+02, le:6. }
            -
               depth: 5
               value: 3.
               norm_class_idx: 3
            -
               depth: 5
               value: 3.
               norm_class_idx: 3
            -
               depth: 4
               value: 5.
               norm_class_idx: 5
               splits:
                  - { var:267, quality:7.9827491760253906e+01,
                      le:8.3500000000000000e+01 }
            -
               depth: 5
               value: 5.
               norm_class_idx: 5
            -
               depth: 5
               value: 8.
               norm_class_idx: 8
            -
               depth: 3
               value: 0.
               norm_class_idx: 0
               splits:
                  - { var:232, quality:2.9117752075195313e+02,
                      le:7.0500000000000000e+01 }
            -
               depth: 4
               value: 0.
               norm_class_idx: 0
               splits:
                  - { var:191, quality:2.9219195556640625e+02, le:150. }
            -
               depth: 5
               value: 0.
               norm_class_idx: 0
            -
               depth: 5
               value: 6.
               norm_class_idx: 6
            -
               depth: 4
               value: 0.
               norm_class_idx: 0
               splits:
                  - { var:166, quality:2.9436885833740234e+01,
                      le:2.6500000000000000e+01 }
            -
               depth: 5
               value: 3.
               norm_class_idx: 3
            -
               depth: 5
               value: 0.
               norm_class_idx: 0
            -
               depth: 2
               value: 8.
               norm_class_idx: 8
               splits:
                  - { var:153, quality:4.4513479614257813e+02, le:24. }
            -
               depth: 3
               value: 6.
               norm_class_idx: 6
               splits:
                  - { var:330, quality:2.5887820434570313e+02, le:120. }
            -
               depth: 4
               value: 6.
               norm_class_idx: 6
               splits:
                  - { var:267, quality:2.7637951660156250e+02,
                      le:3.5500000000000000e+01 }
            -
               depth: 5
               value: 1.
               norm_class_idx: 1
            -
               depth: 5
               value: 6.
               norm_class_idx: 6
            -
               depth: 4
               value: 1.
               norm_class_idx: 1
               splits:
                  - { var:312, quality:8.4083221435546875e+01,
                      le:5.7500000000000000e+01 }
            -
               depth: 5
               value: 1.
               norm_class_idx: 1
            -
               depth: 5
               value: 5.
               norm_class_idx: 5
            -
               depth: 3
               value: 8.
               norm_class_idx: 8
               splits:
                  - { var:244, quality:2.8896862792968750e+02,
                      le:4.5000000000000000e+00 }
            -
               depth: 4
               value: 8.
               norm_class_idx: 8
               splits:
                  - { var:188, quality:2.6876858520507813e+02,
                      le:1.5000000000000000e+00 }
            -
               depth: 5
               value: 2.
               norm_class_idx: 2
            -
               depth: 5
               value: 8.
               norm_class_idx: 8
            -
               depth: 4
               value: 2.
               norm_class_idx: 2
               splits:
                  - { var:149, quality:1.2289060211181641e+02, le:87. }
            -
               depth: 5
               value: 2.
               norm_class_idx: 2
            -
               depth: 5
               value: 0.
               norm_class_idx: 0
      -
         nodes:
            -
               depth: 0
               value: 0.
               norm_class_idx: 0
               splits:
                  - { var:304, quality:6.6892254638671875e+02,
                      le:5.0000000000000000e-01 }
            -
               depth: 1
               value: 4.
               norm_class_idx: 4
               splits:
                  - { var:53, quality:5.5452435302734375e+02,
                      le:4.1500000000000000e+01 }
            -
               depth: 2
               value: 4.
               norm_class_idx: 4
               splits:
                  - { var:274, quality:5.0338299560546875e+02,
                      le:5.0000000000000000e-01 }
            -
               depth: 3
               value: 1.
               norm_class_idx: 1
               splits:
                  - { var:153, quality:4.7089270019531250e+02,
                      le:1.3500000000000000e+01 }
            -
               depth: 4
               value: 1.
               norm_class_idx: 1
               splits:
                  - { var:167, quality:3.0317330932617188e+02, le:3. }
            -
               depth: 5
               value: 1.
               norm_class_idx: 1
            -
               depth: 5
               value: 4.
               norm_class_idx: 4
            -
               depth: 4
               value: 7.
               norm_class_idx: 7
               splits:
                  - { var:210, quality:3.7362719726562500e+02,
                      le:1.0650000000000000e+02 }
            -
               depth: 5
               value: 7.
               norm_class_idx: 7
            -
               depth: 5
               value: 9.
               norm_class_idx: 9
            -
               depth: 3
               value: 6.
               norm_class_idx: 6
               splits:
                  - { var:30, quality:2.1885504150390625e+02,
                      le:5.0000000000000000e-01 }
            -
               depth: 4
               value: 0.
               norm_class_idx: 0
               splits:
                  - { var:211, quality:2.1685008239746094e+02,
                      le:5.0000000000000000e-01 }
            -
               depth: 5
               value: 0.
               norm_class_idx: 0
            -
               depth: 5
               value: 2.
               norm_class_idx: 2
            -
               depth: 4
               value: 6.
               norm_class_idx: 6
               splits:
                  - { var:291, quality:9.4848487854003906e+01, le:123. }
            -
               depth: 5
               value: 2.
               norm_class_idx: 2
            -
               depth: 5
               value: 6.
               norm_class_idx: 6
            -
               depth: 2
               value: 6.
               norm_class_idx: 6
               splits:
                  - { var:153, quality:1.7917927551269531e+02,
                      le:2.4500000000000000e+01 }
            -
               depth: 3
               value: 6.
               norm_class_idx: 6
               splits:
                  - { var:263, quality:1.7420765686035156e+02, le:25. }
            -
               depth: 4
               value: 6.
               norm_class_idx: 6
               splits:
                  - { var:191, quality:1.7467864990234375e+02, le:252. }
            -
               depth: 5
               value: 6.
               norm_class_idx: 6
            -
               depth: 5
               value: 6.
               norm_class_idx: 6
            -
               depth: 4
               value: 0.
               norm_class_idx: 0
            -
               depth: 3
               value: 6.
               norm_class_idx: 6
               splits:
                  - { var:206, quality:1.6153846740722656e+01, le:58. }
            -
               depth: 4
               value: 2.
               norm_class_idx: 2
               splits:
                  - { var:170, quality:8.8500003814697266e+00,
                      le:2.3500000000000000e+01 }
            -
               depth: 5
               value: 2.
               norm_class_idx: 2
            -
               depth: 5
               value: 0.
               norm_class_idx: 0
            -
               depth: 4
               value: 6.
               norm_class_idx: 6
            -
               depth: 1
               value: 3.
               norm_class_idx: 3
               splits:
                  - { var:190, quality:3.9574295043945313e+02,
                      le:6.1500000000000000e+01 }
            -
               depth: 2
               value: 0.
               norm_class_idx: 0
               splits:
                  - { var:229, quality:3.4680285644531250e+02,
                      le:3.5500000000000000e+01 }
            -
               depth: 3
               value: 0.
               norm_class_idx: 0
               splits:
                  - { var:244, quality:2.7689672851562500e+02,
                      le:5.0000000000000000e-01 }
            -
               depth: 4
               value: 5.
               norm_class_idx: 5
               splits:
                  - { var:266, quality:2.1827587127685547e+01,
                      le:2.2500000000000000e+01 }
            -
               depth: 5
               value: 5.
               norm_class_idx: 5
            -
               depth: 5
               value: 2.
               norm_class_idx: 2
            -
               depth: 4
               value: 0.
               norm_class_idx: 0
               splits:
                  - { var:191, quality:2.7360794067382813e+02,
                      le:4.5000000000000000e+00 }
            -
               depth: 5
               value: 0.
               norm_class_idx: 0
            -
               depth: 5
               value: 0.
               norm_class_idx: 0
            -
               depth: 3
               value: 2.
               norm_class_idx: 2
               splits:
                  - { var:174, quality:1.8456896972656250e+02, le:8. }
            -
               depth: 4
               value: 5.
               norm_class_idx: 5
               splits:
                  - { var:267, quality:7.2790695190429688e+01,
                      le:9.5500000000000000e+01 }
            -
               depth: 5
               value: 5.
               norm_class_idx: 5
            -
               depth: 5
               value: 2.
               norm_class_idx: 2
            -
               depth: 4
               value: 2.
               norm_class_idx: 2
               splits:
                  - { var:71, quality:1.3793002319335938e+02, le:145. }
            -
               depth: 5
               value: 2.
               norm_class_idx: 2
            -
               depth: 5
               value: 2.
               norm_class_idx: 2
            -
               depth: 2
               value: 3.
               norm_class_idx: 3
               splits:
                  - { var:152, quality:2.6382223510742188e+02,
                      le:6.0500000000000000e+01 }
            -
               depth: 3
               value: 5.
               norm_class_idx: 5
               splits:
                  - { var:273, quality:1.2219438934326172e+02,
                      le:3.5000000000000000e+00 }
            -
               depth: 4
               value: 8.
               norm_class_idx: 8
               splits:
                  - { var:174, quality:6.3724811553955078e+01,
                      le:4.9500000000000000e+01 }
            -
               depth: 5
               value: 5.
               norm_class_idx: 5
            -
               depth: 5
               value: 8.
               norm_class_idx: 8
            -
               depth: 4
               value: 5.
               norm_class_idx: 5
               splits:
                  - { var:194, quality:9.8324623107910156e+01, le:34. }
            -
               depth: 5
               value: 5.
               norm_class_idx: 5
            -
               depth: 5
               value: 3.
               norm_class_idx: 3
            -
               depth: 3
               value: 3.
               norm_class_idx: 3
               splits:
                  - { var:266, quality:2.2493276977539063e+02, le:99. }
            -
               depth: 4
               value: 3.
               norm_class_idx: 3
               splits:
                  - { var:148, quality:2.0651982116699219e+02, le:142. }
            -
               depth: 5
               value: 3.
               norm_class_idx: 3
            -
               depth: 5
               value: 5.
               norm_class_idx: 5
            -
               depth: 4
               value: 2.
               norm_class_idx: 2
               splits:
                  - { var:277, quality:4.7605796813964844e+01,
                      le:3.5000000000000000e+00 }
            -
               depth: 5
               value: 8.
               norm_class_idx: 8
            -
               depth: 5
               value: 2.
               norm_class_idx: 2
      -
         nodes:
            -
               depth: 0
               value: 6.
               norm_class_idx: 6
               splits:
                  - { var:206, quality:6.8877587890625000e+02,
                      le:5.0000000000000000e-01 }
            -
               depth: 1
               value: 1.
               norm_class_idx: 1
               splits:
                  - { var:153, quality:4.1630343627929688e+02,
                      le:1.3500000000000000e+01 }
            -
               depth: 2
               value: 1.
               norm_class_idx: 1
               splits:
                  - { var:190, quality:2.5997045898437500e+02,
                      le:2.0150000000000000e+02 }
            -
               depth: 3
               value: 5.
               norm_class_idx: 5
               splits:
                  - { var:167, quality:8.0231109619140625e+01,
                      le:6.5000000000000000e+00 }
            -
               depth: 4
               value: 6.
               norm_class_idx: 6
               splits:
                  - { var:54, quality:5.3148998260498047e+01,
                      le:7.5000000000000000e+00 }
            -
               depth: 5
               value: 2.
               norm_class_idx: 2
            -
               depth: 5
               value: 6.
               norm_class_idx: 6
            -
               depth: 4
               value: 5.
               norm_class_idx: 5
               splits:
                  - { var:227, quality:7.4041351318359375e+01,
                      le:4.6500000000000000e+01 }
            -
               depth: 5
               value: 5.
               norm_class_idx: 5
            -
               depth: 5
               value: 6.
               norm_class_idx: 6
            -
               depth: 3
               value: 1.
               norm_class_idx: 1
               splits:
                  - { var:253, quality:2.8722225952148438e+02,
                      le:5.0000000000000000e-01 }
            -
               depth: 4
               value: 1.
               norm_class_idx: 1
               splits:
                  - { var:126, quality:2.7324508666992188e+02, le:1. }
            -
               depth: 5
               value: 1.
               norm_class_idx: 1
            -
               depth: 5
               value: 3.
               norm_class_idx: 3
            -
               depth: 4
               value: 3.
               norm_class_idx: 3
               splits:
                  - { var:151, quality:5.6200714111328125e+01,
                      le:4.6500000000000000e+01 }
            -
               depth: 5
               value: 5.
               norm_class_idx: 5
            -
               depth: 5
               value: 3.
               norm_class_idx: 3
            -
               depth: 2
               value: 7.
               norm_class_idx: 7
               splits:
                  - { var:267, quality:3.9936706542968750e+02,
                      le:9.5000000000000000e+00 }
            -
               depth: 3
               value: 7.
               norm_class_idx: 7
               splits:
                  - { var:145, quality:3.0266940307617188e+02, le:5. }
            -
               depth: 4
               value: 3.
               norm_class_idx: 3
               splits:
                  - { var:283, quality:1.2758618927001953e+02,
                      le:1.5000000000000000e+00 }
            -
               depth: 5
               value: 7.
               norm_class_idx: 7
            -
               depth: 5
               value: 3.
               norm_class_idx: 3
            -
               depth: 4
               value: 7.
               norm_class_idx: 7
               splits:
                  - { var:285, quality:2.4864764404296875e+02,
                      le:1.6500000000000000e+01 }
            -
               depth: 5
               value: 7.
               norm_class_idx: 7
            -
               depth: 5
               value: 3.
               norm_class_idx: 3
            -
               depth: 3
               value: 8.
               norm_class_idx: 8
               splits:
                  - { var:168, quality:2.9008557128906250e+02,
                      le:6.1500000000000000e+01 }
            -
               depth: 4
               value: 2.
               norm_class_idx: 2
               splits:
                  - { var:70, quality:1.9206892395019531e+02,
                      le:2.4500000000000000e+01 }
            -
               depth: 5
               value: 1.
               norm_class_idx: 1
            -
               depth: 5
               value: 2.
               norm_class_idx: 2
            -
               depth: 4
               value: 8.
               norm_class_idx: 8
               splits:
                  - { var:264, quality:1.8580307006835938e+02,
                      le:1.4450000000000000e+02 }
            -
               depth: 5
               value: 8.
               norm_class_idx: 8
            -
               depth: 5
               value: 3.
               norm_class_idx: 3
            -
               depth: 1
               value: 4.
               norm_class_idx: 4
               splits:
                  - { var:267, quality:5.0735116577148438e+02,
                      le:9.5500000000000000e+01 }
            -
               depth: 2
               value: 4.
               norm_class_idx: 4
               splits:
                  - { var:69, quality:3.5795843505859375e+02,
                      le:5.0000000000000000e-01 }
            -
               depth: 3
               value: 9.
               norm_class_idx: 9
               splits:
                  - { var:264, quality:3.8430191040039063e+02,
                      le:3.4500000000000000e+01 }
            -
               depth: 4
               value: 9.
               norm_class_idx: 9
               splits:
                  - { var:193, quality:3.4721755981445313e+02,
                      le:1.5000000000000000e+00 }
            -
               depth: 5
               value: 5.
               norm_class_idx: 5
            -
               depth: 5
               value: 9.
               norm_class_idx: 9
            -
               depth: 4
               value: 0.
               norm_class_idx: 0
               splits:
                  - { var:189, quality:1.4424945068359375e+02, le:213. }
            -
               depth: 5
               value: 0.
               norm_class_idx: 0
            -
               depth: 5
               value: 5.
               norm_class_idx: 5
            -
               depth: 3
               value: 3.
               norm_class_idx: 3
               splits:
                  - { var:210, quality:1.5768174743652344e+02,
                      le:5.0000000000000000e-01 }
            -
               depth: 4
               value: 0.
               norm_class_idx: 0
               splits:
                  - { var:192, quality:9.7614410400390625e+01, le:32. }
            -
               depth: 5
               value: 0.
               norm_class_idx: 0
            -
               depth: 5
               value: 5.
               norm_class_idx: 5
            -
               depth: 4
               value: 3.
               norm_class_idx: 3
               splits:
                  - { var:245, quality:1.0719743347167969e+02,
                      le:4.4500000000000000e+01 }
            -
               depth: 5
               value: 3.
               norm_class_idx: 3
            -
               depth: 5
               value: 2.
               norm_class_idx: 2
            -
               depth: 2
               value: 6.
               norm_class_idx: 6
               splits:
                  - { var:153, quality:3.0885351562500000e+02,
                      le:4.4500000000000000e+01 }
            -
               depth: 3
               value: 6.
               norm_class_idx: 6
               splits:
                  - { var:291, quality:2.9076101684570313e+02, le:52. }
            -
               depth: 4
               value: 2.
               norm_class_idx: 2
               splits:
                  - { var:328, quality:3.2836692810058594e+01,
                      le:6.5000000000000000e+00 }
            -
               depth: 5
               value: 2.
               norm_class_idx: 2
            -
               depth: 5
               value: 8.
               norm_class_idx: 8
            -
               depth: 4
               value: 6.
               norm_class_idx: 6
               splits:
                  - { var:244, quality:2.8853524780273438e+02, le:198. }
            -
               depth: 5
               value: 6.
               norm_class_idx: 6
            -
               depth: 5
               value: 0.
               norm_class_idx: 0
            -
               depth: 3
               value: 0.
               norm_class_idx: 0
               splits:
                  - { var:229, quality:1.1944117736816406e+02, le:53. }
            -
               depth: 4
               value: 0.
               norm_class_idx: 0
               splits:
                  - { var:251, quality:8.3928153991699219e+01, le:191. }
            -
               depth: 5
               value: 0.
               norm_class_idx: 0
            -
               depth: 5
               value: 4.
               norm_class_idx: 4
            -
               depth: 4
               value: 2.
               norm_class_idx: 2
               splits:
                  - { var:167, quality:8.8245407104492188e+01,
                      le:1.6500000000000000e+01 }
            -
               depth: 5
               value: 2.
               norm_class_idx: 2
            -
               depth: 5
               value: 6.
               norm_class_idx: 6
      -
         nodes:
            -
               depth: 0
               value: 8.
               norm_class_idx: 8
               splits:
                  - { var:211, quality:7.2624890136718750e+02,
                      le:5.0000000000000000e-01 }
            -
               depth: 1
               value: 0.
               norm_class_idx: 0
               splits:
                  - { var:234, quality:3.2253170776367188e+02,
                      le:5.0000000000000000e-01 }
            -
               depth: 2
               value: 5.
               norm_class_idx: 5
               splits:
                  - { var:92, quality:7.1633331298828125e+01,
                      le:4.9500000000000000e+01 }
            -
               depth: 3
               value: 5.
               norm_class_idx: 5
               splits:
                  - { var:207, quality:6.5263885498046875e+01,
                      le:2.2500000000000000e+01 }
            -
               depth: 4
               value: 0.
               norm_class_idx: 0
               splits:
                  - { var:236, quality:1.9472526550292969e+01, le:199. }
            -
               depth: 5
               value: 5.
               norm_class_idx: 5
            -
               depth: 5
               value: 0.
               norm_class_idx: 0
            -
               depth: 4
               value: 5.
               norm_class_idx: 5
               splits:
                  - { var:227, quality:6.0496772766113281e+01, le:221. }
            -
               depth: 5
               value: 5.
               norm_class_idx: 5
            -
               depth: 5
               value: 4.
               norm_class_idx: 4
            -
               depth: 3
               value: 0.
               norm_class_idx: 0
               splits:
                  - { var:245, quality:3.5377288818359375e+01, le:64. }
            -
               depth: 4
               value: 2.
               norm_class_idx: 2
               splits:
                  - { var:296, quality:2.4125000000000000e+01, le:7. }
            -
               depth: 5
               value: 3.
               norm_class_idx: 3
            -
               depth: 5
               value: 2.
               norm_class_idx: 2
            -
               depth: 4
               value: 0.
               norm_class_idx: 0
               splits:
                  - { var:269, quality:3.1705883026123047e+01, le:37. }
            -
               depth: 5
               value: 0.
               norm_class_idx: 0
            -
               depth: 5
               value: 2.
               norm_class_idx: 2
            -
               depth: 2
               value: 0.
               norm_class_idx: 0
               splits:
                  - { var:306, quality:3.5031262207031250e+02,
                      le:4.5000000000000000e+00 }
            -
               depth: 3
               value: 7.
               norm_class_idx: 7
               splits:
                  - { var:246, quality:7.1682792663574219e+01, le:4. }
            -
               depth: 4
               value: 7.
               norm_class_idx: 7
               splits:
                  - { var:207, quality:6.7956161499023438e+01,
                      le:6.9500000000000000e+01 }
            -
               depth: 5
               value: 7.
               norm_class_idx: 7
            -
               depth: 5
               value: 6.
               norm_class_idx: 6
            -
               depth: 4
               value: 9.
               norm_class_idx: 9
               splits:
                  - { var:293, quality:1.9281574249267578e+01,
                      le:2.2150000000000000e+02 }
            -
               depth: 5
               value: 0.
               norm_class_idx: 0
            -
               depth: 5
               value: 9.
               norm_class_idx: 9
            -
               depth: 3
               value: 0.
               norm_class_idx: 0
               splits:
                  - { var:168, quality:3.2471600341796875e+02,
                      le:1.3500000000000000e+01 }
            -
               depth: 4
               value: 0.
               norm_class_idx: 0
               splits:
                  - { var:271, quality:1.1354106140136719e+02,
                      le:1.0950000000000000e+02 }
            -
               depth: 5
               value: 0.
               norm_class_idx: 0
            -
               depth: 5
               value: 2.
               norm_class_idx: 2
            -
               depth: 4
               value: 0.
               norm_class_idx: 0
               splits:
                  - { var:155, quality:2.9971139526367188e+02, le:1. }
            -
               depth: 5
               value: 5.
               norm_class_idx: 5
            -
               depth: 5
               value: 0.
               norm_class_idx: 0
            -
               depth: 1
               value: 8.
               norm_class_idx: 8
               splits:
                  - { var:167, quality:6.3885644531250000e+02,
                      le:5.0000000000000000e-01 }
            -
               depth: 2
               value: 1.
               norm_class_idx: 1
               splits:
